//Numpy array shape [180]
//Min -0.858917236328
//Max 0.755729675293
//Number of zeros 0

#ifndef B5_H_
#define B5_H_

#ifndef __SYNTHESIS__
model_default_t b5[180];
#else
model_default_t b5[180] = {0.2282, 0.3161, -0.1079, -0.1646, -0.6185, -0.5970, -0.2512, -0.0566, 0.3384, 0.0659, 0.3277, 0.1473, 0.0613, -0.0843, -0.1303, -0.3753, -0.4381, 0.2909, 0.2281, 0.1704, -0.3543, -0.3209, -0.3208, -0.3589, -0.3481, -0.3505, -0.3243, -0.2988, -0.3139, -0.2970, 0.4669, 0.2395, 0.0882, -0.4067, -0.8589, -0.6433, -0.2951, 0.0906, 0.2901, 0.0002, 0.3267, 0.0060, -0.6014, -0.1723, -0.2283, -0.5055, -0.5639, -0.0393, 0.1997, 0.5375, -0.3270, -0.3449, -0.3425, -0.3522, -0.3374, -0.2858, -0.3275, -0.2697, -0.3391, -0.3007, 0.3582, 0.2860, 0.1361, -0.2819, -0.6585, -0.5088, 0.0697, -0.0002, 0.1345, -0.0170, 0.3815, 0.2576, -0.0989, -0.4483, -0.4230, -0.2682, -0.3590, 0.4059, 0.2954, 0.7557, -0.3546, -0.3321, -0.3694, -0.2941, -0.3458, -0.2966, -0.3409, -0.3419, -0.3147, -0.3200, 0.4491, 0.5360, 0.1999, -0.3891, -0.6293, -0.4766, 0.1220, 0.1749, 0.5549, 0.2429, 0.3391, -0.3133, 0.3818, 0.0373, -0.1928, -0.0520, 0.1083, -0.3227, 0.4888, -0.3315, -0.3437, -0.3066, 0.2112, -0.3184, -0.3291, -0.3045, -0.3238, 0.4128, 0.4020, -0.2972, 0.5914, 0.2948, -0.6757, -0.2630, -0.4342, -0.4754, -0.7545, -0.1378, 0.3224, -0.0112, -0.3534, -0.3104, -0.3194, -0.3485, 0.2177, -0.2944, -0.3394, -0.3635, -0.3742, -0.3027, -0.2903, -0.3108, 0.1732, -0.3215, -0.3373, -0.3377, -0.2904, 0.3506, -0.3302, -0.2775, 0.4216, 0.4328, -0.1033, 0.0270, -0.3758, -0.6297, -0.1707, 0.2630, 0.1771, 0.2948, -0.3368, -0.3241, -0.3082, -0.3293, -0.3272, -0.3535, -0.3339, -0.3241, -0.2955, -0.2890, -0.3338, -0.3337, 0.1694, -0.3856, -0.3085, -0.3155, -0.3227, 0.4333, -0.2862, -0.3361};
#endif

#endif
